[[ 0.05142943 -0.00647446 -0.0317726  ... -0.08080211 -0.0765205
   0.04568481]
 [ 0.03833848 -0.09935216 -0.05114956 ...  0.07198202 -0.07380469
   0.06717584]
 [-0.07582848 -0.09781244 -0.00651156 ... -0.02840779 -0.04891181
  -0.01135869]
 ...
 [ 0.01376513 -0.00972609  0.0717142  ...  0.12237125  0.04235476
  -0.02214646]
 [-0.00899451  0.03614448  0.06515038 ...  0.09861029 -0.01634448
   0.04675698]
 [-0.00261975  0.00186953 -0.09288632 ...  0.03531611 -0.01645868
   0.03469569]]


[[-0.21875138  0.02082635  0.06996518 ... -0.68720588 -0.18685531
  -0.25784924]
 [-0.59785737  0.48938699 -0.66857159 ...  0.24451219 -0.02702615
  -0.80585956]
 [-0.64908352  0.55903346  0.11564901 ... -0.52153016 -0.54936284
   0.40987314]
 ...
 [-0.26608405 -0.06541136  0.05549352 ... -0.17368824 -0.47481442
  -0.65203771]
 [-0.38640909  0.67156051 -0.23590183 ... -0.46906497 -0.02491635
  -0.16373977]
 [ 0.08454903 -0.07346371 -0.4850874  ... -0.24826242 -0.17835937
  -0.18071677]]